69 100
</s> 0.004003 0.004419 -0.003830 -0.003278 0.001367 0.003021 0.000941 0.000211 -0.003604 0.002218 -0.004356 0.001250 -0.000751 -0.000957 -0.003316 -0.001882 0.002579 0.003025 0.002969 0.001597 0.001545 -0.003803 -0.004096 0.004970 0.003801 0.003090 -0.000604 0.004016 -0.000495 0.000735 -0.000149 -0.002983 0.001312 -0.001337 -0.003825 0.004754 0.004379 -0.001095 -0.000226 0.000509 -0.003638 -0.004007 0.004555 0.000063 -0.002582 -0.003042 -0.003076 0.001697 0.000201 0.001331 -0.004214 -0.003808 -0.000130 0.001144 0.002550 -0.003170 0.004080 0.000927 0.001120 -0.000608 0.002986 -0.002288 -0.002097 0.002158 -0.000753 0.001031 0.001805 -0.004089 -0.001983 0.002914 0.004232 0.003932 -0.003047 -0.002108 -0.000909 0.002001 -0.003788 0.002998 0.002788 -0.001599 -0.001552 -0.002238 0.004229 0.003912 -0.001180 0.004215 0.004820 0.001815 0.004983 -0.003111 -0.001532 -0.002107 -0.002907 0.002815 0.001579 0.000425 -0.002194 0.001524 0.003059 0.000194 
i -0.002588 0.209976 -0.039761 0.181868 -0.361979 -0.264583 -0.282300 -0.200019 0.165237 -0.317179 -0.237708 0.026065 0.231386 0.240203 0.187234 -0.164327 -0.009036 0.204389 -0.452062 -0.127779 0.124543 0.217454 -0.046619 -0.255190 0.310634 0.279892 0.026792 -0.078192 -0.094661 0.051799 0.344734 0.200988 0.022628 0.110968 -0.191545 0.266274 0.143914 -0.255627 0.234921 -0.185881 -0.022240 0.193757 -0.462781 -0.018173 -0.172596 0.239174 -0.282851 0.416682 0.723436 0.223612 -0.003862 -0.532335 -0.200066 0.082904 0.181302 -0.228165 -0.006525 -0.070296 0.306455 0.069241 -0.060611 -0.036375 0.277082 -0.004052 -0.043626 0.245626 -0.263281 0.318996 0.092212 0.106361 -0.057003 0.234139 0.025387 -0.383935 0.154984 0.044288 0.176418 -0.241372 0.079641 -0.581082 -0.016403 0.068537 -0.279715 -0.077289 -0.129511 0.343952 -0.462492 -0.365831 0.144155 -0.276984 0.142266 -0.605182 -0.262059 -0.038699 0.031725 -0.290453 0.086899 0.211865 0.737547 -0.056859 
ɑ -0.328423 0.013272 -1.133349 0.453706 0.655587 -0.501699 0.012872 -0.309401 0.247393 -0.295393 -0.258828 0.840400 0.301623 -0.472829 0.425934 -0.764998 0.854746 0.754161 1.471493 0.442581 0.350690 -0.133895 -0.376781 0.679718 -0.223584 -0.351848 -0.034573 -0.384749 -0.346488 -0.362683 0.136641 -0.590436 0.014779 -0.236820 -0.113657 -0.546567 -0.265446 -0.293119 -0.552646 0.218380 0.279248 0.188406 -0.470204 0.398480 0.437268 -0.251302 -0.322005 -0.503008 -0.007265 0.227654 -0.163180 -0.241681 -0.645440 -0.834199 -0.739970 -0.207636 0.282080 0.084255 0.580224 -0.195999 0.364004 0.379165 -0.728348 0.169466 0.251897 -1.363440 0.311746 0.167487 0.720111 -0.149482 -0.269784 -0.331109 0.132824 0.210971 0.070118 -1.223113 1.260595 0.258106 0.531056 0.176623 1.079229 -0.112979 -0.111201 -0.329997 -1.353394 -0.564430 -1.327398 0.242948 0.377859 -0.368903 0.166119 -0.374138 0.184966 0.710672 -0.051710 0.469436 0.157995 -0.113491 0.208313 -0.548051 
t 0.236248 0.527224 0.250314 -0.216107 -0.274654 0.203122 0.094058 0.341040 0.158905 0.335579 -0.199096 0.591607 -0.122455 0.177287 0.061240 0.465649 -0.509701 -0.544601 -1.036104 0.147347 0.101356 -0.056444 0.297932 0.005622 0.016604 0.059759 -0.051172 0.266247 0.242132 0.290844 -0.137011 0.436657 0.147579 0.244177 -0.301660 0.260681 0.101467 -0.150520 0.417050 0.021492 0.078253 0.382739 -0.269874 -0.129210 0.029489 0.115067 0.237347 0.473307 0.542966 -0.001878 0.168777 0.171145 0.169222 0.230002 0.679990 0.384529 -0.281661 0.328591 0.056592 0.359365 -0.258520 -0.236713 0.579673 -0.177854 0.241565 0.568323 -0.301322 0.249309 -0.083342 0.056966 0.109013 0.238901 -0.144541 -0.264396 0.665603 0.558972 -0.285043 -0.410523 0.005961 -0.496544 -0.490317 0.285168 -0.525874 -0.221701 0.269890 0.467885 0.278980 -0.144867 0.049542 -0.012388 -0.053789 -0.208673 -0.144143 -0.125647 0.069936 -0.254212 0.490251 0.192038 0.477770 -0.325889 
n 0.221921 -0.234603 -0.016256 -0.044008 -0.004631 0.495979 0.279992 0.451850 0.154951 0.362977 -0.232746 0.402730 -0.015268 0.000603 -0.052249 0.529359 -0.379424 -0.683145 -0.786217 -0.050616 -0.100735 -0.129179 0.275549 -0.323173 0.050231 -0.201772 -0.214713 0.322687 -0.009603 0.109015 0.055699 0.348845 -0.117850 0.515588 -0.236420 0.622047 0.209557 0.146441 0.550098 -0.003613 -0.037614 0.385780 -0.095797 -0.347568 0.031139 0.182444 0.330148 0.299506 0.488342 -0.033179 0.043017 0.084963 0.157762 0.422177 0.644521 0.289796 -0.043439 0.179201 -0.041773 0.169680 -0.700682 -0.313991 0.684899 -0.173719 0.002177 0.519758 -0.316782 0.217942 -0.047881 0.081936 -0.026023 0.120918 -0.083836 -0.529604 0.580121 0.549903 -0.144483 -0.377444 -0.128652 -0.364146 -0.326095 0.275194 -0.260382 -0.217157 0.316834 0.404210 0.196296 -0.073920 -0.371147 0.088976 0.183195 -0.460550 -0.076247 -0.201135 0.204058 -0.225389 -0.040515 0.099239 0.193843 -0.064299 
r -0.123133 0.332617 -0.281649 -0.445003 0.138713 0.661383 0.410531 0.847991 0.290928 0.659073 -0.088543 0.334928 0.747558 0.240186 0.220144 0.608408 -0.590460 -1.282962 -1.079003 -0.078163 0.208639 -0.031624 0.261237 0.193581 0.042780 0.220449 -0.380287 0.510224 0.130594 0.239471 -0.373587 0.892963 -0.215399 0.687187 -0.645986 0.841650 0.122401 0.401700 0.797773 0.183160 -0.102949 0.365078 -0.535179 -0.639107 0.064551 -0.140746 0.181300 0.015158 0.688561 0.150171 0.131133 0.320394 0.515885 0.521474 0.400134 0.636061 -0.275087 0.156686 0.070518 0.203554 -0.273139 -0.375274 0.482731 0.055899 0.148898 0.371554 -0.000324 0.202086 -0.323748 0.153583 -0.070777 0.436587 0.130943 -0.133412 0.752721 0.384267 -0.857010 -0.619754 -0.087777 -0.460126 -0.696581 0.361366 -0.793546 0.023560 0.088449 -0.478235 0.477356 -0.058926 0.027839 0.553489 0.341306 -0.450513 -0.201381 -0.289184 0.234659 -0.477483 0.448109 -0.137599 0.364373 -0.473692 
e 0.446186 0.429275 0.630201 -0.110283 -0.527192 0.673300 0.304930 0.841126 -0.027969 0.614855 0.157173 0.404934 -0.371378 0.211573 0.030759 0.734779 -1.126982 -0.958132 -0.784638 -0.005731 0.130445 0.594802 0.627879 -0.276328 -0.082897 0.063273 0.178470 0.814862 0.129484 0.454155 -0.920749 0.846281 0.443107 0.292721 -0.281757 0.683421 0.070056 -0.143555 -0.032601 -0.053143 0.144397 0.305192 -0.073987 -0.582860 -0.044727 0.580264 0.234567 0.446391 0.659734 -0.283181 0.180912 -0.125547 0.311831 0.471763 0.595433 0.347578 -0.605531 0.059793 -0.621284 -0.061120 0.183864 -0.300520 1.101438 -0.701924 -0.088165 1.039646 -0.134246 1.079802 -0.563050 -0.428599 0.335586 0.397040 -0.134159 -0.408418 0.995650 0.799596 -1.037452 -0.610628 -0.409820 -1.143864 -1.269331 0.488535 -1.008331 0.564064 0.518859 0.069692 0.604613 0.012974 -0.356809 0.000622 -0.222045 -0.438562 0.729246 -0.218645 -0.409096 -1.120914 -1.041269 0.090242 0.174711 0.520127 
l 0.269332 0.099181 0.322329 -0.157100 0.140970 0.066990 0.474671 0.614091 0.464797 0.380928 -0.240986 0.447429 0.446521 0.043018 0.126849 0.414687 -0.314464 -0.529752 -0.742383 0.054312 0.073899 0.159886 -0.056655 -0.290993 0.251539 -0.191200 -0.058737 0.383460 -0.095570 0.172364 0.086525 0.256574 -0.173794 0.271937 -0.236287 0.351111 0.055101 0.091048 0.417376 -0.132370 -0.091312 0.335907 -0.015657 -0.150200 -0.124413 0.117541 0.387161 0.131622 0.613565 -0.168124 -0.202444 -0.055439 -0.036681 0.360443 0.278445 0.393626 -0.034566 0.090827 0.084821 0.081209 -0.308580 -0.331771 0.388847 -0.295579 0.276189 0.588218 -0.129631 0.047549 -0.015328 0.219101 0.087355 0.216295 0.142302 -0.214435 0.462533 0.308330 -0.531294 -0.711397 0.149229 -0.207735 -0.192392 0.277106 -0.271163 -0.238798 0.192964 0.431792 0.204479 -0.117585 -0.281103 0.121975 -0.013522 -0.242200 -0.136254 0.194709 0.169448 -0.092009 0.033311 0.009085 0.382573 -0.033224 
k 0.007973 -0.118548 -0.247253 0.189353 -0.253547 -0.190666 0.464863 0.400221 0.496350 0.433532 -0.153915 0.374585 -0.063052 0.085285 0.054513 0.350903 0.055034 -0.646444 -0.528651 0.156737 0.075857 -0.018298 0.003244 -0.315245 0.249581 0.004465 -0.089891 0.713886 0.113013 0.019624 0.201248 0.287713 0.027818 0.040272 -0.150483 0.278848 0.284678 0.165204 0.333517 -0.078188 0.049778 0.319666 -0.610527 0.083218 -0.093106 0.119446 0.137049 0.151085 0.500657 -0.253109 -0.008634 0.038825 -0.315420 0.272907 0.250608 0.212098 0.111556 0.174005 0.161215 0.205325 -0.429868 -0.282612 0.182004 -0.203928 0.488885 0.705478 -0.360918 -0.015096 0.030028 -0.016333 0.109779 0.100414 -0.107466 -0.034932 0.295487 0.286685 -0.056840 -0.175467 -0.021012 -0.002269 -0.157769 0.198535 -0.189173 -0.595501 0.044591 0.217626 0.089643 -0.211824 -0.064278 -0.144106 0.057886 -0.083547 -0.340664 0.225028 0.141429 0.151155 -0.090903 0.047246 0.149745 -0.123189 
a 0.160485 0.150078 0.778601 -0.445717 -0.710268 0.386378 0.342166 0.506201 -0.099466 0.532784 0.163349 0.279426 -0.137539 0.105235 -0.317177 0.674651 -1.103248 -0.824189 -0.815600 -0.147653 -0.117032 0.419835 0.406033 -0.485694 0.256086 -0.190035 0.542722 0.153488 0.234855 0.421813 -0.491264 0.511166 0.417704 0.074439 0.013516 0.589381 0.087598 -0.134635 -0.285585 -0.321576 0.132796 0.222522 -0.036658 -0.559500 -0.413228 0.475630 0.551668 0.249038 0.500113 -0.201172 -0.106559 -0.276320 0.410988 0.376328 0.339380 0.136512 -0.487474 -0.128303 -0.706451 -0.175274 -0.142001 -0.227665 0.830104 -0.607886 -0.093030 0.893129 -0.176578 0.890156 -0.559588 -0.092566 0.012696 0.435845 0.008557 -0.362276 0.600843 0.513727 -0.790725 -0.529541 -0.403316 -0.668320 -0.973644 0.274729 -0.821348 0.149075 0.802613 0.632705 0.645100 0.095304 -0.520693 -0.253469 -0.218910 -0.365626 0.365070 -0.090757 -0.198314 -0.717774 -0.930570 0.197919 -0.417313 0.560304 
u 0.192659 0.643198 -0.927070 0.236549 -0.072603 0.042240 -0.308676 -0.221506 0.218117 -0.379217 -0.384597 -0.022212 0.443370 -0.148771 0.682685 -0.799841 -0.298626 0.184598 0.018201 0.173695 0.771025 0.210410 -0.052994 -0.195702 0.269423 0.068445 0.416946 -0.011164 -0.338007 -0.032808 0.079518 0.118941 -0.406926 0.053942 -0.430656 0.240225 -0.014552 -0.423019 0.160460 -0.093281 0.081673 -0.173739 -0.671794 0.057455 0.261347 0.045571 -0.049190 0.343015 0.511378 0.102108 -0.267587 -0.593949 -0.051749 -0.240889 -0.455584 0.091183 0.187183 0.145263 0.110941 0.008772 -0.286558 0.010603 0.001023 0.249406 0.092627 -0.567859 0.151660 0.090463 0.512466 -0.158449 -0.131175 0.066238 0.088986 -0.535809 0.321813 -0.197390 0.236053 -0.191969 0.029335 -0.398110 0.385716 0.084271 -0.309732 -0.036886 -0.484782 -0.068395 -0.684428 -0.511370 0.472673 -0.227817 0.593605 -0.726951 -0.386169 0.042539 0.238339 -0.285027 0.238010 0.108353 1.050965 -0.451951 
s 0.085156 0.155088 0.242685 -0.591983 -0.493285 0.448748 0.381817 0.842238 0.139842 0.160333 -0.073972 0.113518 -0.263813 0.260528 -0.143827 0.329337 -0.295325 -0.748515 -0.646835 -0.208421 -0.010026 0.262721 0.242292 -0.029677 0.040737 -0.270582 -0.155965 0.524117 0.049322 0.060137 -0.153190 0.474240 0.137722 0.630717 -0.163792 0.585906 0.165253 0.097677 0.303248 -0.005592 -0.177932 0.206780 0.140691 -0.155136 0.073576 0.118184 0.291093 -0.006283 0.507423 0.076516 -0.253679 0.032734 0.505744 0.359390 0.790204 0.139616 0.066114 0.161868 -0.069744 0.326054 -0.324706 -0.495001 0.654055 0.166290 0.168159 0.534364 -0.302830 0.446588 -0.235111 -0.083570 0.141141 0.170689 -0.083740 -0.114385 0.495162 0.616295 -0.671566 -0.552693 -0.078388 -0.543700 -0.592565 0.396333 -0.157603 -0.417035 0.181431 0.204042 0.403696 -0.238443 -0.303135 0.289833 0.113106 -0.335100 0.300069 -0.017060 -0.222523 -0.485769 0.103646 -0.202865 0.277712 -0.134666 
ɛ -0.269013 -0.170858 0.809060 -0.140818 -0.351538 -0.213963 -0.149332 -0.557987 0.028417 -0.181412 -0.382738 -0.377716 0.039865 0.047190 -0.468828 0.096104 0.507794 0.220090 0.250672 0.025378 -0.080034 -0.980472 -0.059290 -0.063912 0.119581 -0.135399 0.145763 -0.528604 -0.021235 -0.046614 0.630660 0.340745 0.106444 0.196435 0.238813 0.041315 -0.039817 0.160051 0.555178 -0.376275 -0.123945 -0.082979 0.295701 0.609797 0.095926 0.015320 0.129760 0.310791 -0.103165 -0.065120 0.082199 -0.155702 -0.270152 0.145770 0.806708 -0.036397 -0.371132 0.514822 -0.031736 0.555323 -0.321512 -0.119116 -0.041125 -0.122078 0.070305 0.018312 -0.107467 -0.008161 -0.050336 0.064926 0.393930 -0.124462 0.277601 -0.046897 0.101864 0.040050 0.104853 -0.022908 0.344306 -0.018412 0.176239 -0.171521 0.261982 -0.858426 -0.391602 0.256397 -0.364890 -0.024783 -0.305667 0.115825 -0.392027 0.163033 -0.315031 0.045393 0.415158 0.165327 0.048926 -0.061392 0.067950 -0.542328 
j 0.055520 0.413664 0.379868 -0.654287 -0.653042 0.610722 0.030145 0.184422 -0.030298 -0.366254 -0.306625 -0.140582 -0.085163 0.113775 -0.113124 -0.144739 -1.002452 -0.136905 -1.039857 -0.339658 -0.017921 0.414756 0.285172 -0.741050 0.002711 0.161206 -0.227519 0.566369 0.001284 0.412118 -0.096910 0.528914 0.102060 0.145774 -0.511733 0.427225 0.474124 -0.092521 0.042127 -0.235084 0.111505 0.296126 -0.510240 -0.690491 -0.350466 0.499257 0.215170 0.606883 0.718343 0.028599 -0.082167 -0.116456 0.298559 0.487642 0.577976 0.324567 -0.208230 -0.038416 -0.193801 0.310596 -0.089031 0.011440 0.736079 -0.219479 0.182170 0.794745 -0.592620 0.870785 -0.293994 0.068189 -0.164434 0.502623 0.332524 -0.524070 0.613000 0.519552 -0.327514 -0.394746 -0.208443 -0.741272 -0.755174 0.351670 -0.355869 0.114812 0.695450 0.508305 0.179945 -0.403237 -0.133815 -0.230830 0.133615 -0.401315 0.072475 -0.005984 -0.274492 -0.826330 0.098570 0.142251 0.776579 -0.290368 
m 0.031065 -0.056673 0.096155 -0.126770 -0.314616 0.284707 0.450486 0.297356 0.445557 0.297940 -0.068610 0.236726 0.289628 0.197745 0.093190 0.162298 -0.020800 -0.700393 -0.561775 0.013656 0.112343 -0.331803 0.095006 -0.389919 0.125365 -0.106239 0.091754 0.167485 0.389581 -0.016599 0.174731 0.298023 -0.068179 0.245587 -0.200035 0.409562 -0.088765 -0.239810 0.137035 0.015353 -0.126646 0.249939 -0.251534 0.078139 -0.191650 0.381264 0.426763 0.110541 0.502415 0.184189 -0.127190 -0.201474 -0.161193 0.326423 0.069882 0.341544 -0.106776 0.103835 0.305965 0.102738 -0.636926 -0.475118 0.375010 -0.225446 0.355837 0.466973 -0.160337 -0.032549 -0.056302 -0.037200 0.263827 0.338869 0.009657 -0.064692 0.133356 0.155787 -0.450880 -0.357890 0.087862 -0.279023 -0.337907 -0.063647 -0.063399 -0.335500 0.176949 0.259999 0.070054 -0.243264 -0.169088 0.093629 0.004408 0.122257 -0.012211 0.115517 0.382852 0.006108 0.079725 -0.333035 0.394174 -0.109163 
ɔ -0.132304 0.153126 0.764504 0.321263 -0.534404 -0.612207 -0.346133 -0.333623 0.439279 -1.218034 -0.012764 -0.721759 -0.247219 0.168601 0.025505 -0.008823 0.451770 1.081243 0.391720 -0.231395 -0.092927 -0.255407 -0.279313 0.202933 -0.509341 0.434367 -0.048209 -0.568075 -0.158697 0.081283 0.937292 -0.284641 -0.067800 0.060123 0.132896 -0.603759 -0.206560 -0.242879 0.419278 -0.393331 -0.513850 -0.133544 0.590893 0.373290 0.067365 -0.181854 -0.125265 0.511974 0.079185 -0.067205 0.091790 -0.190584 -0.290084 -0.025840 0.653247 -0.904869 0.049031 -0.284055 0.410345 0.228419 0.234412 0.375408 -0.194828 0.236542 0.053436 -0.326881 -0.287519 -0.018323 0.205433 0.424183 -0.114524 -0.189052 -0.472639 -0.607364 0.192100 -0.543059 0.453384 -0.159173 0.404370 -0.537875 0.680025 0.200364 0.835540 -0.827115 -0.577307 0.675417 -0.740064 -0.303946 -0.150470 -0.426378 -0.058166 0.316684 -0.170091 0.310651 -0.342170 0.012491 -0.230710 0.135241 0.440438 -0.218348 
d 0.005337 0.113125 0.928432 -0.199676 -0.440891 0.412587 0.231917 0.574513 0.255040 0.158372 -0.521945 0.239929 0.039213 0.185784 -0.516553 0.499446 -0.420888 -0.566478 -0.812144 -0.080669 0.390489 -0.208913 0.086668 -0.461006 -0.330135 0.354631 -0.071929 0.676800 0.475893 0.171524 0.025318 0.299245 0.243173 0.587881 0.033553 0.370490 0.547577 -0.162993 0.537257 0.269236 -0.008884 0.118370 0.280212 -0.403042 -0.076348 -0.286585 0.153926 0.608893 0.389068 -0.272486 0.000157 -0.037195 0.410388 0.386179 0.951487 0.386879 -0.607240 0.524880 -0.200430 0.255946 -0.072486 -0.319599 0.520127 0.241702 0.310334 0.525798 -0.054268 0.242230 -0.398824 -0.053799 -0.054096 0.556901 0.122598 -0.093685 0.524614 0.686818 -0.477381 -0.127369 -0.270689 -0.277237 -0.497139 0.367861 0.201434 -0.173217 0.393547 0.391226 0.300960 -0.147534 -0.092833 0.510609 -0.099139 -0.256302 0.246304 0.018920 0.287545 -0.295239 0.240819 -0.125296 0.330490 -0.313395 
p 0.069590 0.227436 -0.013685 -0.231757 -0.458619 0.357840 0.229205 0.082139 0.481950 0.216705 -0.157133 0.233824 -0.154831 0.350550 -0.017175 0.232105 -0.371169 -0.647555 -0.618181 0.149626 0.148215 0.046717 0.402995 -0.593118 0.158019 -0.283874 -0.043215 0.321944 0.046300 -0.175518 0.147915 0.492948 0.152994 0.379800 -0.268325 0.379929 0.128974 -0.048324 0.230646 -0.099021 0.091186 0.492698 -0.390950 -0.297629 0.139793 0.461393 0.210539 0.255430 0.416581 -0.008849 0.022727 0.034260 -0.031525 0.446916 0.700902 0.208012 -0.118617 0.461031 -0.180019 0.295647 -0.498501 -0.381889 0.604733 -0.272282 0.436272 0.434183 -0.469560 0.305964 -0.301942 -0.005495 0.113044 0.427571 -0.070073 -0.376943 0.678912 0.882025 0.153145 -0.218258 0.237261 -0.551591 -0.570107 0.191919 -0.419356 -0.240235 0.317427 0.053695 0.136301 -0.029281 -0.034887 -0.048757 -0.193338 -0.159300 -0.068862 -0.050448 -0.158746 -0.483920 -0.219685 0.286327 0.230485 -0.150317 
z -0.016270 0.157270 0.260579 -0.391266 -0.100979 0.594843 0.284210 -0.011289 0.158428 -0.127939 -0.475474 0.329107 0.144395 0.418553 -0.172431 0.627971 -0.120683 -0.510479 -0.440235 -0.195153 0.204554 -0.138202 0.262137 -0.031918 -0.261696 -0.346757 -0.011119 0.045664 -0.098472 0.175197 0.321800 0.674546 0.003078 0.714509 -0.072996 0.391567 -0.305930 0.154017 0.396760 -0.024021 -0.397144 0.379869 -0.319264 -0.588738 0.225353 0.237492 0.065395 0.147547 0.346227 -0.155166 -0.286770 0.037495 -0.106957 0.522290 0.675594 0.348862 -0.061998 0.282384 0.181105 0.511651 -0.458621 -0.296288 0.599037 -0.054901 0.313587 0.574516 0.003794 -0.025550 -0.009412 0.266853 0.061193 0.154339 0.048183 -0.315178 0.491261 0.428179 -0.180709 -0.638486 -0.032346 -0.293889 0.031100 0.533274 -0.229999 -0.351857 0.226297 0.136506 0.032725 0.056641 -0.236269 0.083220 0.055002 0.128013 0.212030 0.361194 0.175702 -0.148910 -0.114453 -0.043488 -0.016493 -0.393298 
kʰ -0.079945 -0.172923 -1.096681 0.687116 0.532465 -0.652857 0.400402 -0.247408 0.153195 -0.262009 -0.238676 0.710726 0.510644 -0.451963 0.661049 -0.876578 0.881496 0.544796 1.068438 0.185156 0.264718 -0.272424 -0.571960 0.369351 -0.268732 -0.107719 -0.126665 -0.299573 -0.223754 -0.220593 0.640077 -0.608711 -0.092616 -0.240691 -0.120922 -0.464074 0.066090 -0.342812 -0.502277 0.349251 0.373382 0.013306 -0.959430 0.083641 0.173242 -0.206242 -0.132586 -0.300351 -0.190794 -0.133117 0.082559 -0.041497 -0.474827 -0.731693 -1.020192 -0.083320 0.308001 0.052363 0.428587 -0.366500 -0.015556 0.292932 -0.671706 0.142322 0.486413 -1.173449 0.037260 0.008387 0.485523 -0.229253 -0.305349 -0.537272 0.217200 0.256691 -0.191289 -1.502902 1.623797 0.170495 0.384017 0.444621 0.975611 -0.136651 0.103006 -0.842427 -1.132120 -0.219121 -1.100213 0.226115 0.286352 -0.404749 0.407046 -0.094987 -0.185680 0.706257 0.219081 0.631581 0.045254 0.225643 0.137846 -0.661197 
w -0.032524 -0.362403 -0.126544 0.125436 0.012606 -0.274467 0.253249 -0.139034 0.066882 -0.035588 -0.256619 0.438492 0.602812 -0.245984 0.376096 -0.321544 1.114998 -0.109448 0.610584 0.296107 -0.105283 -0.707382 -0.268766 0.578585 -0.291034 0.134959 -0.086609 -0.176583 0.147358 -0.141587 0.975155 -0.139849 -0.132283 0.485815 0.015795 0.064157 -0.264798 -0.176813 -0.071003 0.086731 -0.106682 0.211018 -0.119417 0.265871 0.283288 -0.249418 -0.081603 0.063987 -0.403031 -0.043936 0.203522 0.261540 -0.489914 -0.220714 -0.111020 0.187172 -0.030724 0.295014 0.244455 -0.009471 -0.622247 -0.209428 -0.593455 0.094624 0.340652 -0.414574 -0.130184 -0.219641 0.096075 0.212274 0.143390 -0.574308 -0.608475 0.433797 -0.423976 -0.546532 0.473951 -0.143461 0.750824 0.484032 0.503179 -0.209648 0.019530 -0.609382 -0.763524 0.033512 -0.469874 0.026470 0.310177 -0.228296 0.280787 0.199076 -0.473773 0.309385 0.168573 0.676643 0.260410 0.201264 0.304930 -0.458425 
e̯ 0.762092 -0.577367 -0.415702 0.464405 0.813519 0.666814 0.344191 0.746822 -0.115286 0.219744 0.457082 0.133922 -0.307401 0.243797 -0.157000 0.449458 -1.197034 -0.101909 -1.427240 -0.253074 0.704614 1.869338 0.147589 -0.173537 -0.873893 0.590506 0.467272 1.439814 -0.053362 -0.038787 -1.123057 0.648465 0.049838 0.303933 -1.115570 0.193844 0.466769 0.227355 -0.490786 0.752964 0.266088 0.726031 -1.110064 -1.459326 -0.190377 1.124964 -0.434611 0.242677 0.501678 -0.310325 0.491392 0.062116 -0.105206 0.971753 0.286562 0.538160 -0.173812 -0.348287 -0.220462 -0.135276 0.901121 -0.216921 0.995644 -0.646435 0.420489 0.714999 0.020881 0.499415 -0.358952 -0.186777 0.027275 0.467907 0.047013 -0.701652 0.900759 0.528247 -0.959466 -0.714901 -0.531144 -0.783618 -1.194092 0.395177 -0.996951 0.790061 0.525173 -0.575266 0.640244 -0.205779 0.017977 0.579843 0.247160 -0.215290 0.927640 -0.937125 -0.383200 -1.223521 -0.535768 -0.123944 0.455421 0.674400 
o 0.178101 0.085169 0.452369 -0.287720 -0.317129 0.507897 0.076219 0.699210 0.107194 0.580940 0.438460 -0.162076 0.206455 0.547925 -0.922663 0.658252 -0.679761 -1.547020 -1.068252 0.019288 0.203241 0.519339 0.572607 -0.068804 -0.069285 -0.009245 0.481448 0.550170 0.477271 0.165340 -0.498859 0.429001 0.123988 0.520859 -0.029226 0.746162 0.421727 -0.005181 0.073807 -0.014325 0.292678 0.567907 -0.671707 -1.002736 0.003531 0.129165 0.117800 0.087551 0.646472 0.017644 -0.104327 -0.268910 0.943031 0.344387 0.351578 0.360329 -0.262798 0.170400 -0.782818 -0.441124 -0.151730 -0.246461 0.575538 -0.686376 0.117984 0.721683 -0.387122 0.530230 -0.350137 -0.123141 0.070968 0.097292 0.284878 -0.124185 0.733778 0.651211 -0.975161 -0.619268 -0.357297 -1.037522 -1.232974 0.485590 -0.906699 0.061727 0.628277 0.066400 0.581995 -0.347662 -0.611983 0.420883 0.004179 -0.354062 0.064628 -0.857492 0.167387 -0.483541 -0.053866 0.194118 -0.600645 0.330091 
ɐ -0.160662 2.129384 0.818950 -1.209322 -1.253854 0.607704 -0.227268 -0.544528 -0.555959 -0.432775 -0.704205 -0.699976 0.833299 0.022014 -0.347246 -0.376858 -1.947771 -0.212211 -0.836946 -0.648163 -0.778269 -0.092233 0.618181 -0.427833 0.591556 0.235498 -0.084608 -0.779573 -0.392083 1.067087 -0.154697 -0.127743 0.329820 -0.325061 0.200697 0.379139 0.352904 -0.386827 1.332586 -0.580678 0.296576 0.042299 0.131024 -0.442971 -0.836370 -0.217680 0.957231 0.641363 0.445029 0.240807 -0.367560 -0.262200 1.585449 0.101021 1.110613 -0.217378 -0.621936 0.215315 -0.284779 -0.372638 -0.695143 0.603216 1.044683 0.297942 -0.447484 -0.570964 -0.580770 1.163161 -0.827115 0.007063 0.084008 0.078331 1.118128 -0.471839 0.458595 0.694668 0.527908 -0.288268 -0.454143 -1.476557 -0.573424 0.569790 0.454865 -0.022516 -0.079234 0.203328 -0.366301 -0.082822 -0.230664 0.528161 0.311151 -0.916432 -0.136972 0.321030 -0.110846 -1.707982 0.720461 0.448106 0.514524 -1.494604 
v -0.246728 0.393673 0.437701 -0.382019 -0.812115 0.209277 0.287901 0.018607 0.355653 0.567565 -0.384835 0.445488 0.082166 0.380296 0.080302 0.410199 -1.061768 -0.948571 -0.441253 0.160197 -0.173045 -0.229604 0.291553 -0.472334 0.366701 -0.063820 -0.022242 0.177971 0.120661 0.197278 0.139994 0.419378 0.215262 0.180396 0.101315 0.595311 -0.009471 -0.243897 0.604676 -0.175746 0.347562 0.358634 -0.256223 -0.130032 0.086156 0.290791 0.567192 0.296751 0.663041 0.241976 -0.026392 0.006950 0.523763 0.258943 0.670900 -0.091925 -0.216025 0.355290 -0.035337 0.222643 -0.646492 -0.067155 0.711523 -0.215588 -0.079800 0.659059 -0.059090 0.907928 -0.306609 -0.284461 0.124952 0.431258 0.066637 -0.255972 0.303116 0.582347 -0.226334 -0.293011 -0.160830 -0.663179 -0.486825 0.160737 -0.559885 -0.279048 0.281491 -0.001153 0.093188 -0.171872 0.088582 -0.093890 0.117361 -0.308763 0.012623 0.016025 0.235180 -0.546388 -0.128747 0.149324 0.349673 -0.124541 
ʃ -0.243149 0.389184 -0.082546 -0.146957 -0.497731 0.129062 0.431590 0.405098 0.290794 0.583223 -0.419741 0.410565 0.116522 0.053302 0.340203 0.110584 -0.352988 -0.521664 0.009472 -0.213803 -0.355688 -0.243378 0.063841 -0.394790 0.730805 -0.330343 -0.155130 0.157130 -0.267853 0.026946 0.291562 0.266511 -0.261247 0.226730 -0.176615 0.485767 0.216900 0.101537 0.365437 -0.037492 0.243211 0.434139 -0.213726 0.017411 0.043797 0.002301 0.394285 -0.054701 0.842251 0.335393 -0.169683 -0.088256 0.361655 0.179955 0.076801 0.157176 0.178372 0.354221 0.031818 -0.114855 -1.096893 -0.337661 0.444834 -0.464244 0.402078 0.168143 0.171586 0.714006 0.232576 -0.141098 0.293793 0.259848 0.063374 0.061883 0.206751 0.165948 -0.435129 -0.439347 -0.210474 -0.601354 -0.642003 0.353510 -0.066390 -0.236953 -0.024301 0.167723 -0.015431 -0.354687 0.288437 -0.162579 0.340986 -0.194678 0.011695 0.330166 0.481352 -0.034695 0.064909 -0.064083 0.352165 -0.287229 
tʰ 0.011940 0.302450 -0.914256 0.334310 0.700390 -0.397683 0.110349 -0.600909 0.068024 -0.211515 -0.144856 1.306589 0.297732 -0.529190 0.699859 -0.879625 0.883924 0.675915 0.868006 -0.019934 0.550596 -0.262050 -0.469311 0.698693 -0.162432 -0.258951 -0.139529 -0.569872 -0.138723 -0.134322 0.567150 -0.602059 0.021204 -0.176638 -0.169453 -0.662926 -0.131267 -0.394361 -0.763740 0.436549 0.278942 -0.062379 -0.204707 0.137980 0.385689 -0.431168 -0.333443 -0.181678 0.029979 0.193136 0.280549 -0.069945 -0.490834 -0.742252 -0.784219 0.064796 0.052771 0.290362 0.565637 -0.390414 0.158369 0.298240 -0.483824 0.111322 0.426636 -1.333927 0.132061 0.106323 0.465357 -0.338955 -0.460296 -0.473370 0.012874 0.216422 0.099146 -1.250723 1.409618 0.132868 0.400718 0.264233 0.876688 -0.192346 -0.122042 -0.726327 -1.074090 -0.054996 -0.785324 0.190359 0.566317 -0.533648 0.309717 -0.355290 0.014319 0.442095 0.158803 0.562047 0.449505 0.378667 0.222861 -0.803102 
b -0.247440 -0.043154 0.050652 -0.050690 -0.702078 0.176331 0.234094 -0.359615 0.156495 0.081045 -0.268896 0.672869 0.043879 0.083181 0.238201 0.022256 0.272140 -0.565280 -0.161291 -0.134430 -0.169746 -0.384104 0.219013 -0.100648 0.419408 0.058525 0.071688 0.318999 0.082096 0.040600 0.492215 0.074277 0.023979 0.091293 -0.273420 0.386656 0.120583 0.165576 0.632791 -0.103694 -0.023974 0.038721 -0.305940 0.268803 0.050721 0.014906 -0.080878 0.165152 0.157223 -0.023892 0.160630 0.071951 -0.305780 0.281119 0.159294 0.241944 -0.099953 0.180654 0.360730 -0.227302 -1.006247 -0.433909 0.689918 -0.399023 0.454414 0.605659 -0.009994 0.050477 -0.347089 0.023736 0.251483 0.452393 -0.185162 0.143562 0.123321 0.318385 -0.388802 -0.082848 -0.204252 -0.219417 -0.670607 0.196768 -0.135670 -0.200325 0.115942 0.529624 0.089625 0.044630 -0.016919 0.145907 -0.208108 0.104731 -0.360244 -0.233512 0.206829 -0.023776 -0.270757 0.275679 -0.085529 -0.220791 
f -0.054059 -0.265241 0.001929 0.197282 -0.372979 0.148224 0.431415 0.500487 0.256969 0.016403 -0.044388 0.178241 -0.022162 0.077228 0.097657 0.239981 0.237819 -0.425966 -0.177199 0.310187 -0.164501 0.187422 0.086166 0.176793 -0.043628 0.018974 -0.048090 0.606874 0.056192 -0.095057 0.328775 0.366397 0.249055 0.254336 -0.039470 0.244356 0.141372 0.081974 0.207936 0.293178 -0.238175 0.295299 -0.700707 0.040323 -0.049178 0.302587 0.191897 0.026923 0.036910 0.054828 -0.156421 0.136180 -0.303837 0.353215 0.492646 0.252787 0.073915 -0.001956 0.075557 0.024047 -0.796668 -0.677915 0.224488 -0.246993 0.649238 0.434692 -0.122249 -0.180123 -0.122425 -0.016028 0.294124 0.108298 -0.705736 0.164221 0.240061 0.599048 -0.466862 -0.122714 0.262151 -0.376776 -0.225726 0.129543 -0.083145 -0.846904 0.121569 0.244488 -0.332675 -0.445084 0.194258 0.319225 -0.280982 0.314711 0.119564 -0.185106 -0.090188 -0.149141 0.209688 0.128089 0.008225 0.276726 
ə -0.152133 -0.998805 1.174055 -0.130357 0.254678 0.931006 0.503218 0.886042 -0.117155 1.295008 0.595209 -0.087025 -0.610034 0.311550 -0.637054 0.924929 0.755377 -1.043030 -0.933404 -0.045275 0.041401 -0.242424 0.151939 -0.100254 -0.614101 -0.229277 -0.285175 1.145943 0.622221 0.357496 -0.990369 0.443424 0.155660 0.094626 0.101348 0.503176 0.118655 0.841162 0.265247 0.301798 -0.165818 0.521449 0.606694 -0.556092 -0.037220 0.130827 0.247909 -0.430380 -0.780771 -0.408877 0.070306 1.159016 0.380790 0.384749 0.293922 0.750825 -0.163359 0.067862 -0.271381 -0.016667 0.189735 -0.052891 0.357626 -0.704008 -0.023684 1.019102 0.341384 -0.164993 -0.899310 -0.202698 -0.169796 0.452751 -0.212895 0.578708 0.298480 1.143829 -0.865296 0.244921 -0.042833 0.177995 -0.303867 0.014559 -0.599982 0.307737 0.554787 -0.275156 1.232420 0.384742 -1.078035 0.201268 -0.415836 0.599281 0.318923 -0.636226 -0.702808 0.384787 -0.134810 -0.341002 -1.004375 0.563488 
g 0.100648 -0.085701 0.558201 0.138422 -0.663755 0.353660 0.640252 0.280323 0.366861 0.239385 -0.009518 0.187135 -0.258283 0.086077 -0.441548 -0.048466 -0.350458 -0.839199 -0.506436 -0.221172 0.329546 -0.012042 0.092070 -0.194224 0.470248 -0.148428 0.148129 0.501878 0.113612 0.120932 0.149927 0.569659 0.273274 0.412775 -0.211371 0.341740 0.353267 -0.189079 0.253546 -0.029418 -0.260760 -0.208509 -0.458725 -0.516493 -0.220441 0.308482 0.233024 0.309512 0.152765 -0.077360 0.362478 0.164339 0.144010 0.406995 0.660797 0.250920 -0.546166 0.664039 -0.135198 0.292280 0.020462 -0.155892 0.412838 -0.072046 0.657545 0.658716 -0.416549 -0.045071 -0.290774 0.067930 0.355591 0.307139 0.018530 -0.233945 0.562546 0.441719 -0.219255 -0.408543 -0.201535 -0.424773 -0.386780 0.316249 -0.353672 -0.133185 0.272596 0.089609 0.323554 0.033550 -0.494877 -0.038846 -0.193471 0.053900 0.211237 0.033375 0.110724 -0.031267 -0.246283 -0.306118 0.282504 0.235222 
ʁ -0.606867 -0.946202 1.582551 -0.166571 -0.037359 0.355219 0.229236 0.288895 0.146829 0.163853 0.151742 -0.382710 0.437023 -0.349426 -0.137443 0.464545 -1.156932 0.794177 -0.490722 -0.740700 -1.256047 0.282874 -0.032071 -0.641995 -0.367824 -1.035515 -0.228555 -0.728860 0.134033 -0.223366 -0.345705 -0.715565 0.109668 0.007907 0.239746 -0.711083 -0.743428 0.161875 -0.235616 -0.062776 -0.578913 0.122017 1.370332 0.144116 0.090771 0.087349 0.393115 -0.166328 -0.215814 -0.095522 -0.345151 0.657000 -0.296037 0.467778 0.639916 -1.212619 0.544881 -0.786779 1.219871 0.905565 1.276372 0.101958 0.693664 0.380877 -0.291518 0.992159 -0.819716 -1.173277 -0.395129 -0.204361 -0.701177 0.506361 -0.489900 -0.548825 0.065227 -0.318428 0.165034 0.422136 0.037127 0.762638 -0.254741 -0.177675 0.848221 0.585033 0.965569 1.452095 0.806330 0.448331 -0.442019 -0.159880 -1.102419 1.002728 0.304555 1.142797 -0.081848 -0.464747 -1.414778 0.034426 -0.244203 0.463849 
ʲ -0.390814 2.007181 0.704830 -1.259716 -0.937972 -0.415351 0.727653 -1.001644 -0.062789 0.078028 -0.662588 0.266555 -0.049391 -0.023559 0.282681 -0.223850 -2.750888 -1.473005 -0.367860 -0.251732 -1.083544 -0.333666 0.404574 -0.616059 0.712546 0.268778 -0.363215 -0.234613 0.036280 0.796690 -0.040056 0.191003 0.134438 -0.134642 0.424145 0.611433 0.219809 -0.765958 1.460636 -1.000860 0.732065 0.420718 -0.633573 -0.532742 -0.471625 -0.162575 1.455876 0.524909 0.849763 0.480735 -0.245899 0.237085 1.489129 0.147780 0.402001 0.076661 -0.386760 -0.130233 -0.639098 -0.545892 -0.820242 0.581236 0.534138 -0.256398 -0.800338 0.452247 -0.561359 2.035957 -0.671196 -0.489767 -0.127928 0.724313 0.475528 -0.892263 0.195626 0.442920 0.366251 -0.241069 -0.535749 -1.280252 -1.573983 0.195186 -0.291278 0.749249 0.717608 -0.292387 0.174000 -0.216284 0.088093 -0.565052 0.774331 -1.009525 0.263700 0.233847 0.583199 -2.036564 -0.531519 -0.021436 0.860891 -0.927120 
o̯ 0.504538 -0.467832 -0.476628 0.329601 1.020653 0.841968 0.647787 0.837021 -0.039890 0.212529 0.885499 -0.046714 -0.220295 0.180766 -0.408177 0.448781 -0.857485 -0.525236 -1.271328 -0.018245 0.788178 1.558106 -0.015603 -0.170360 -0.621235 0.751546 0.545988 1.288283 0.100846 -0.292947 -1.137705 0.623302 -0.259181 0.093259 -1.208620 0.054568 0.581817 0.134834 -0.540107 0.724479 0.404806 0.732381 -0.924654 -1.302134 0.114887 0.796363 -0.456857 0.004186 0.699220 -0.330834 0.427229 0.084958 0.034990 0.883937 0.027946 0.347943 -0.120176 -0.385249 -0.029774 -0.373230 0.920930 -0.422662 0.988744 -0.896351 0.719945 0.796696 -0.039858 0.523893 -0.339925 -0.106816 0.083555 0.548506 -0.021535 -0.613468 0.942774 0.454964 -1.125256 -0.761106 -0.423469 -0.894200 -1.256942 0.318845 -1.064609 0.807292 0.333143 -0.907885 0.781849 -0.307953 0.130695 0.920003 0.580035 -0.200176 0.737393 -1.240084 -0.158882 -0.691090 -0.333222 -0.192355 0.218005 0.736423 
h -0.358372 -0.707482 -0.410336 0.684850 1.005124 -0.171337 0.607190 0.052540 0.586926 0.666146 -0.180813 1.336658 0.395778 -0.167370 0.068694 0.203432 1.366143 -0.674441 0.052882 0.014301 0.208717 0.039238 -0.315068 0.093192 0.503924 0.047232 -0.458348 0.795302 0.078316 -0.451232 0.167905 0.339454 -0.045161 -0.079004 -0.524805 0.238181 -0.140216 0.142198 -0.436750 0.505185 0.033901 0.708824 -0.951664 -0.191927 0.156301 -0.130125 -0.008218 -0.664163 0.047702 -0.325232 0.098178 -0.389371 -0.833903 0.055813 -0.273613 1.222194 0.014904 -0.235213 0.023044 -0.455073 -0.593928 -0.671300 -0.390195 -0.350433 0.326337 -0.179733 0.028299 -0.507454 0.244519 0.694200 0.016240 -0.166347 -0.331178 0.172307 0.161592 -0.346879 0.292085 0.077699 0.321403 0.371624 0.160556 -0.375383 -0.527184 -0.035610 -0.040473 -0.627537 -0.254380 0.234525 0.481951 0.323315 0.264395 -0.061607 0.108533 -0.524478 0.404483 0.922258 0.938393 0.338111 -0.030141 -0.158616 
i̯ 0.907128 -0.562164 -0.605584 0.506612 0.913345 0.767511 0.479039 1.136879 0.056471 0.388056 0.739764 0.201399 -0.228869 0.205594 -0.143912 0.247181 -1.196802 -0.325408 -1.393786 -0.135330 0.897836 1.644758 -0.085294 -0.115006 -0.762406 0.713525 0.148531 1.496517 0.450602 -0.352055 -1.036331 0.851298 0.017597 0.306603 -1.070656 0.190837 0.403163 0.188798 -0.522891 0.680765 0.263359 0.528089 -1.223982 -1.121007 -0.320968 0.949554 -0.339671 0.222695 1.141566 -0.422366 0.565518 0.049586 -0.298117 1.062540 -0.064516 0.730697 -0.066981 -0.583813 -0.301021 -0.254864 0.896673 -0.561983 0.871692 -0.815288 0.262136 0.757331 0.199177 -0.073763 -0.203521 -0.236312 0.216997 0.464065 -0.165931 -0.795727 0.814614 0.471401 -0.735482 -0.469990 -0.293176 -0.440645 -0.902556 0.099678 -0.745255 0.145446 0.335792 -0.635870 0.651986 -0.405027 0.259777 0.499093 0.326933 -0.379365 0.749556 -1.101425 -0.212161 -1.061466 -0.155183 -0.192841 0.209459 0.769556 
pʰ -0.450948 0.004761 -0.986123 -0.005979 0.246049 -0.069371 0.211845 -0.594687 -0.122678 -0.653143 -0.339265 0.694695 0.252190 -0.271392 0.567924 -0.959597 0.872283 0.737850 1.283536 -0.067691 0.201513 -0.198557 -0.468942 0.303379 -0.348612 -0.392141 0.197352 -0.407953 -0.368295 -0.638124 0.698510 -0.450446 -0.013285 0.021729 -0.257634 -0.422604 -0.127009 -0.184093 -0.633400 0.310201 0.332593 0.236909 -0.472434 0.090881 0.458447 0.110454 -0.426918 -0.316410 -0.354937 -0.105245 -0.056652 0.082136 -0.618405 -0.520167 -0.336985 -0.080070 0.219124 0.316048 0.347397 -0.059388 -0.056662 -0.075145 -0.472322 0.223404 0.493083 -1.241205 -0.029903 0.069814 0.304404 -0.297185 -0.248574 -0.354397 0.102024 0.272555 -0.193053 -1.154013 1.555606 0.119701 0.754160 0.298706 0.702635 -0.296473 0.327196 -0.919735 -1.136603 -0.253172 -1.023970 0.343948 0.556425 -0.229832 0.127332 0.182577 0.072668 0.586949 -0.158010 0.164327 0.129738 0.382201 -0.240324 -0.858673 
ŋ -0.303193 -0.328689 -0.010882 0.463455 -0.048770 -0.209598 0.772503 0.079066 0.437918 0.485815 -0.589400 1.001296 -0.668540 -0.422408 -0.675483 0.060334 0.990436 -0.417681 0.852292 0.331426 -0.219785 -1.460432 -0.313441 0.586503 -0.124662 -0.209093 -0.388290 0.541610 0.127328 -0.420425 0.387033 -0.728531 0.139204 0.104462 0.182954 0.220572 -0.002975 0.189034 -0.139835 0.567719 0.009952 0.098759 0.196403 0.410876 0.218528 -0.351000 0.118981 -0.471043 -0.780580 -0.331604 -0.099492 0.423180 -0.538252 -0.114348 0.205535 0.874316 -0.102956 0.351659 0.082511 -0.220687 -0.782375 -0.765439 -0.713655 0.194452 0.384451 0.117589 -0.039379 -1.000926 -0.132823 0.092811 0.055929 -0.768256 -0.212743 1.080426 -0.106325 -0.614363 0.286884 0.211527 0.325658 0.786775 0.070937 -0.149458 0.510200 -0.439643 -0.856883 -0.274064 -0.321637 0.635727 -0.372250 0.230975 -0.287958 0.363309 -0.019677 0.186701 0.786936 1.308327 0.335483 -0.214432 -0.646240 -0.293189 
ʒ 0.143825 0.040111 0.405789 -0.471106 -0.742404 0.596035 0.056282 0.416900 -0.299238 0.251590 -0.016829 -0.533632 0.003356 0.154133 -0.184702 0.802134 -0.721679 -1.272268 -1.209395 -0.339441 -0.163307 -0.302699 0.548696 -0.075932 -0.442427 -0.207302 0.219744 -0.219065 0.488617 0.577869 -0.063091 0.829782 0.101735 0.250030 0.058340 0.468287 0.286380 0.317942 0.548129 -0.151586 0.059550 0.502806 -0.160764 0.027077 -0.260733 0.032247 -0.011495 0.254573 0.165772 0.198419 -0.540596 0.081851 0.362635 0.480971 0.948924 0.303008 -0.081406 0.305928 0.102947 0.257220 -0.582843 -0.630009 1.215951 -0.453774 0.261914 0.832986 0.294460 0.245208 -0.368111 0.545022 0.121507 0.254287 -0.139001 -0.115641 0.509858 1.148444 -0.384723 -0.370728 -0.394069 -0.215650 -0.431139 0.635790 -0.125309 -0.178030 0.613353 0.310214 0.699514 0.011376 -0.899448 0.381250 -0.147790 0.097532 0.044778 0.636874 -0.185467 -0.522497 0.062294 -0.304380 -0.385589 0.192427 
ɨ 0.178187 1.031788 -0.188816 -0.565214 -0.861734 -0.459864 0.579172 -0.447712 0.482391 0.600792 -0.158043 0.538795 -0.151818 0.281572 0.557615 0.030644 -2.609896 -1.289363 -0.917277 -0.233906 -0.159330 0.102441 0.086124 -0.264996 0.582045 0.122443 0.126821 -0.631716 0.245734 0.851076 -0.592980 0.363166 0.350236 0.212746 -0.042987 0.876027 0.343036 -0.350928 1.034034 -0.866861 0.483671 0.256349 -0.123688 -0.350495 -0.374201 -0.381072 0.431144 0.510333 1.050474 0.636143 0.060072 -0.128482 1.119348 0.103595 0.700201 0.230230 -0.602292 0.001547 -0.814742 -0.012738 -0.212583 0.036662 0.732589 -0.357453 -0.474694 0.225024 0.061429 1.913213 -0.539925 0.257704 0.254841 0.477709 0.300765 -0.768707 0.384447 0.246232 -0.583410 -0.746147 -0.306716 -0.803861 -1.921760 0.332854 -0.617038 0.547565 0.485048 -0.154364 0.406243 0.009561 -0.218291 -0.203581 0.384195 -0.859349 0.905255 0.443302 0.650774 -1.782569 -0.164596 0.477945 0.832688 -0.311291 
ɟ -0.130350 0.221176 -0.947272 0.415125 0.300350 -0.476451 0.191636 -0.400412 -0.227743 -0.162316 -0.312029 0.789298 0.623776 -0.301411 0.526363 -0.922505 0.863815 0.693699 1.402584 0.316642 0.425333 -0.208147 -0.637131 0.302911 -0.319857 -0.130207 0.205704 -0.438026 -0.027943 -0.394481 0.644422 -0.220930 -0.034007 -0.037731 0.043696 -0.428757 -0.022402 -0.129176 -0.665810 0.381273 0.478323 0.237723 -0.612593 0.211423 0.332699 -0.140326 -0.280200 -0.511974 -0.385602 -0.207309 -0.132583 -0.063648 -0.507119 -0.648593 -0.813965 0.275204 0.274990 0.363232 0.119661 -0.369352 -0.466291 -0.182245 -0.439935 0.116693 0.746292 -1.128293 0.421042 0.230556 0.473880 0.005014 -0.018255 -0.506116 0.136100 0.365069 -0.273105 -1.060862 1.294141 0.069418 0.532688 0.385037 0.948416 -0.158755 -0.047374 -0.626666 -0.883651 -0.184553 -0.764967 -0.030870 0.484086 -0.326507 0.517730 0.124422 0.030202 0.564877 -0.131671 0.338816 0.024439 -0.029817 0.035788 -0.528258 
ɪ -0.645787 -0.722583 -0.041918 -0.870018 0.200746 0.574981 -0.085784 0.151334 -0.334111 1.527847 0.387245 -0.405587 -1.264065 0.492831 -1.835818 0.877307 0.746885 -0.496267 -0.848666 0.009984 -0.011244 -0.762845 0.083262 0.214446 -0.456961 -0.329205 -0.954305 0.583173 0.390901 0.248572 -1.469047 0.842334 0.063848 0.184059 0.935723 0.648886 0.398123 1.468671 1.509808 0.441219 -0.004601 0.869834 1.272230 -0.303474 0.351838 -0.514315 0.356299 -1.053971 -1.837930 -0.072586 -0.356412 1.776157 0.573882 -0.209445 0.257185 1.919322 -0.255759 0.685294 -0.027614 -0.104567 -0.521992 -0.456969 -0.530555 0.306049 -0.108864 0.585464 0.490311 -0.673350 -0.523968 0.168152 -0.005271 0.567611 0.016764 1.380281 -0.538666 1.346006 -1.123371 0.588171 -0.107471 0.227682 -0.488884 -0.379049 -0.449347 1.641797 0.325707 -0.961301 0.945517 0.667560 -0.651415 0.270386 -0.338112 0.419216 -0.366264 -0.410023 0.333120 1.058047 0.963503 -1.285019 -0.689382 0.105121 
ʊ 0.094415 0.404148 0.839618 -1.241168 -0.040650 0.505071 -0.093881 0.037698 -1.359405 0.795020 -0.186885 -0.904240 0.177622 -0.165559 -1.644032 1.229722 1.086189 -0.034938 -1.337686 0.144222 -0.063662 -0.383885 -0.095750 0.352981 0.162798 0.716875 -0.100576 -0.459929 0.107804 0.824018 -0.061022 0.795857 0.558221 0.022328 0.693489 0.647762 0.455317 0.971557 1.766607 -0.033617 -0.438784 -0.503937 0.960582 0.105599 -0.081786 -0.726921 0.432478 -0.188749 -0.867192 0.014439 -0.314621 0.521776 0.527457 0.197343 1.528969 0.134086 -0.757416 0.857412 0.414867 0.276544 -0.712229 -0.668020 0.647980 0.447341 0.433509 -0.259569 0.779719 0.306823 -1.233422 -0.087784 0.149973 0.194736 -0.358605 0.310885 -0.236387 0.848442 -0.917458 0.042162 -0.037067 0.825799 0.159146 0.229246 0.355183 -1.243555 -0.206952 -0.992029 0.615302 0.508090 -0.351239 1.430467 -0.615263 0.084190 -0.229851 0.193477 0.023365 -0.116285 1.632069 -0.339585 -0.001847 -1.253987 
tʃ -0.058090 0.183546 -1.152571 0.321397 0.409511 0.028382 0.353936 -0.569638 0.167842 -0.535066 -0.313990 0.971523 0.462480 -0.602381 0.593791 -0.754079 0.841434 0.594800 1.212847 -0.095733 0.266165 -0.104232 -0.629347 0.177328 -0.215208 -0.316085 0.441448 -0.407554 -0.585331 -0.362741 0.407066 -0.940919 -0.056731 -0.408472 0.066574 -0.200934 -0.269962 -0.498868 -0.509221 0.171499 0.353903 -0.224717 -0.484297 0.046810 0.187491 0.024442 -0.112246 -0.237532 -0.360255 -0.083512 -0.091851 0.034263 -0.421148 -0.724581 -0.396026 -0.177755 -0.005249 0.129936 0.216243 -0.448748 0.093849 -0.044051 -0.535493 0.325983 0.263209 -1.147042 0.234309 -0.437836 0.377583 -0.552248 -0.526594 -0.119699 -0.087991 0.333615 -0.439878 -1.180574 1.377983 0.466124 0.957170 0.360351 0.871458 -0.442394 0.109816 -0.533984 -1.133979 -0.224142 -1.076421 0.271000 0.575935 -0.610524 0.041825 0.140184 -0.091871 0.601471 0.211197 0.512830 0.260062 0.309904 -0.363066 -0.556566 
tʃʰ -0.115402 0.108837 -1.144889 0.262697 0.454209 -0.016524 0.189876 -0.617611 0.179297 -0.577808 -0.230750 0.944563 0.609438 -0.613798 0.607057 -0.875508 0.816932 0.704371 1.119384 -0.129746 0.197584 -0.058862 -0.680931 0.332998 -0.196585 -0.311821 0.547385 -0.532001 -0.552499 -0.355967 0.446931 -0.869066 -0.048650 -0.419256 0.007490 -0.267227 -0.220090 -0.521172 -0.617374 0.209830 0.371389 -0.249449 -0.573952 0.164953 0.213322 0.011789 -0.281528 -0.212296 -0.291985 0.027976 -0.023008 0.046446 -0.460598 -0.796477 -0.452924 -0.239813 0.021250 0.198415 0.321891 -0.401687 0.142275 -0.057937 -0.530179 0.249615 0.226552 -1.279289 0.248856 -0.397593 0.434739 -0.614803 -0.426274 -0.105473 -0.153093 0.426244 -0.465207 -1.146107 1.347965 0.449427 0.982009 0.371110 0.861428 -0.524487 0.172363 -0.551256 -1.112862 -0.224494 -1.080533 0.259062 0.624318 -0.608905 -0.039266 0.095700 0.018189 0.702848 0.223544 0.461291 0.289306 0.349916 -0.354952 -0.534992 
ː 0.356620 1.513646 1.514420 -0.662178 -0.335248 0.157587 -0.009416 -0.282793 -0.432931 -0.785541 -0.153360 -1.430713 0.709426 0.005740 -1.046818 0.247011 0.497230 0.475715 -1.418746 -0.054986 -0.316869 -0.082505 0.281518 0.446948 -0.528811 1.025620 -0.308028 -0.689326 -0.089617 1.112976 0.619243 -0.118667 0.583989 -0.320638 0.664559 -0.294164 0.941289 0.048720 1.002642 0.711352 -0.571330 -1.220285 -0.180299 0.331857 -0.830502 -0.837218 0.227878 0.491132 -0.584343 -0.350778 -0.084608 -0.372785 0.816912 0.549234 2.002301 -0.380834 -0.871406 -0.047927 0.460318 -0.502700 0.049981 -0.475064 1.163624 0.634216 -0.321810 -1.503039 0.156058 0.636361 -1.233929 0.075956 -0.214716 -0.626884 0.210268 -0.390492 1.121851 -0.187576 0.592950 -0.086813 -0.209003 -1.285523 0.522338 0.514206 1.081796 -2.092361 -0.559881 0.482576 -0.826537 -0.079709 -0.277758 1.376734 0.574035 -0.066141 0.633948 0.075288 -0.067638 -0.845786 1.033070 0.620098 0.006732 -1.700200 
y -0.680628 -1.166331 1.756709 0.070773 -0.805429 0.785841 0.513258 0.215205 -0.373205 -0.079929 0.447617 -0.546443 0.182927 -0.358060 -0.034950 -0.400686 -1.019217 0.805308 0.219863 -0.728765 -0.827343 0.466947 -0.013081 -0.710619 -0.420312 -0.127951 0.277062 -0.471657 -0.047371 -0.196952 -0.526712 -0.642336 0.262699 -0.081996 0.340789 -0.606694 -0.745378 -0.091147 -0.237248 -0.395986 -0.623141 0.307265 1.324427 -0.339458 0.143141 -0.120013 -0.049242 0.169583 -0.548947 -0.454263 0.134660 0.394168 -0.100350 0.211976 0.424315 -1.581262 0.483705 -0.977787 0.871836 0.743552 1.169078 0.140532 0.528517 0.300608 -0.039494 1.004033 -0.771734 -0.791508 -0.517569 -0.137374 -0.599357 0.443827 -0.524704 -0.617847 0.084517 -0.070989 0.506937 0.551143 -0.096156 0.152320 -0.318500 -0.125643 0.926102 0.626856 0.709767 1.303302 0.648742 0.085739 -0.636216 -0.410773 -0.590713 0.651740 0.087122 0.766284 -0.673388 -0.635553 -1.036583 -0.025794 -0.378285 0.488220 
iː -0.740331 -0.686527 -0.201444 -1.069405 0.141706 0.619663 -0.023904 0.375516 -0.690465 1.570445 0.586197 -0.558078 -1.407197 0.601572 -1.796483 0.918328 1.247486 -0.681927 -0.763622 -0.113108 0.129655 -1.119256 0.058231 0.474448 -0.224605 0.173307 -0.750761 0.545630 0.466800 0.040123 -1.708667 0.694711 0.308700 -0.009620 0.764524 1.005156 0.618366 1.340788 1.001004 0.534163 0.041160 0.694568 1.269038 -0.195831 0.167547 -0.639300 0.196522 -1.094805 -1.576200 -0.087151 -0.484777 1.268695 0.587798 -0.063624 0.334408 2.002273 -0.452487 0.639473 -0.341772 -0.112988 -1.114675 -0.403628 -0.753057 0.222623 0.043611 0.298586 0.519724 -0.272858 -0.685796 0.044849 0.012196 0.673760 0.140586 1.482869 -0.781890 1.231547 -1.180518 0.580408 -0.236934 0.691825 -0.632596 -0.300096 0.107414 0.820002 0.426624 -0.620065 0.934574 0.993843 -0.866865 0.734140 -0.784638 0.283416 -0.367845 -0.552016 0.122157 1.213603 1.040526 -0.660113 -1.009320 0.062329 
ɑː -0.475956 -0.461036 -0.166803 -0.985217 0.293745 0.656848 -0.215718 0.159176 -0.479513 1.370864 0.648458 -0.529183 -1.163630 0.248987 -2.113678 1.137404 1.277408 -0.509061 -0.438125 0.234062 0.273068 -0.826130 0.025535 0.170278 -0.441492 -0.059598 -0.626692 0.383217 0.247777 0.514311 -1.529223 0.458486 0.098634 -0.129144 0.835440 0.831223 0.591534 1.355847 1.041929 0.394911 0.188145 0.590759 1.659345 -0.061619 0.413617 -0.594392 0.474500 -0.878932 -1.670184 -0.026794 -0.436833 1.325530 0.468745 -0.195857 0.230460 2.079729 -0.528759 0.729520 -0.316692 -0.381116 -1.027815 -0.373173 -0.362274 -0.240249 0.024414 0.145552 0.708172 -0.125640 -0.604153 0.021141 -0.191630 0.720485 0.302458 1.209937 -0.550764 1.520864 -1.445774 0.442120 -0.130582 0.378701 -0.330993 -0.123395 -0.158186 0.922482 0.348317 -0.623381 0.757056 0.763169 -0.774022 0.454768 -0.793803 0.422960 -0.339753 -0.529086 0.259503 1.044278 0.967305 -0.591130 -0.779388 0.095094 
ɲ -0.047446 0.301064 -0.527601 1.264221 0.399182 0.026250 -0.455577 -0.033089 0.357643 -0.447706 0.007415 0.362155 0.413265 -0.789973 0.046832 -0.320717 -0.370244 0.721087 0.823806 -0.230380 -0.282304 0.369340 -0.535031 -0.137775 0.159297 -0.284230 0.337701 -0.292227 -0.046595 -0.689708 0.890626 -0.554418 -0.039012 -0.182477 0.039044 -0.649204 -0.524744 -0.306939 -0.595051 -0.119808 0.123967 -0.130746 0.064603 0.307229 0.134318 0.190290 0.236582 0.079552 0.087675 -0.266973 -0.141435 0.069772 -1.259876 -0.173125 -0.408104 -0.007236 0.297281 0.224808 0.324799 0.139650 -0.233177 -0.035703 -0.809132 0.198902 0.030332 -0.245971 -0.300803 -0.827513 0.513498 -0.471642 0.115219 -0.696580 -0.929411 0.023209 -0.450664 -0.890697 1.038284 0.251035 0.840845 0.983896 0.565070 -0.845698 0.184314 -0.531195 -0.446857 -0.108922 -0.180929 0.029859 0.790302 -0.999680 -0.355500 0.174309 -0.124932 0.995645 0.446926 0.435141 -0.164651 0.401274 -0.415014 -0.048309 
u̯ 1.163703 -1.081148 -0.795829 0.289238 0.930269 0.926451 -0.050336 1.624081 0.025305 -0.446270 -0.102595 -0.310776 -0.164483 -0.257307 -0.499604 0.507777 -1.617322 -0.260419 -1.575301 0.210469 0.878943 1.118771 -0.330615 -0.009654 -0.596811 0.607525 -0.072910 1.627054 0.862348 -0.468431 -0.435940 0.634883 -0.159144 0.690602 -1.712020 -0.227571 0.346543 0.397689 -0.440716 0.576641 0.322895 0.461562 -0.591175 -0.325563 0.132021 0.670351 -0.384731 0.199955 1.699452 -0.766108 0.325457 0.554421 -0.386245 0.905707 -0.151416 0.073390 0.120760 -0.740734 -0.192850 -0.162593 0.782654 -0.150929 1.132915 -1.240430 0.785280 0.518044 0.332858 0.011663 0.033404 0.482558 0.494646 0.737937 -0.338284 -0.882692 0.841314 0.265830 -0.492939 -0.838255 0.162143 -0.244790 -1.154653 0.646619 -1.655971 1.256314 0.215491 -1.287467 0.799566 0.055949 0.323299 0.958804 -0.436565 -0.316747 -0.117236 -1.303350 -0.682718 -0.660416 -0.463117 -1.134134 0.605939 0.842174 
æ -0.179180 -0.730363 -0.345989 -1.363959 0.135356 0.672385 -0.430042 0.387101 -0.585945 1.751718 0.414178 -0.631538 -0.906394 0.455102 -1.800224 1.241254 1.233047 -0.354642 -0.629351 0.274313 0.326244 -0.772457 0.329304 0.457620 -0.849560 -0.042664 -0.673742 0.370203 0.318661 0.532402 -1.554212 0.537411 0.134533 0.280288 1.106724 1.163826 0.203409 1.441053 1.275171 0.127364 0.179412 0.637345 1.492550 -0.043086 0.385639 -0.462785 0.302650 -0.874521 -1.522145 -0.039569 -0.590818 1.325591 0.568211 -0.322974 0.066659 1.905460 -0.379775 0.656169 -0.101141 -0.401598 -0.689880 -0.293136 -0.547199 0.214749 -0.108813 0.142349 0.755257 -0.211481 -0.767012 -0.165182 -0.228949 0.794662 -0.047873 1.425728 -0.910774 1.291190 -1.642122 0.517779 -0.008948 0.421282 -0.765416 -0.286160 -0.403672 0.952707 0.091281 -0.586324 0.752837 0.513195 -0.699796 0.222324 -0.497139 0.374518 -0.696291 -0.183234 0.135855 0.692076 0.864050 -0.887668 -0.958650 -0.017810 
x -0.211022 1.318730 0.510878 -0.536882 -0.904740 -0.244327 0.630182 -1.305222 0.019551 0.179922 -1.005835 0.585442 -0.344140 0.107953 0.667539 -0.549747 -2.108479 -1.408043 -0.215413 -0.282155 -1.102804 -0.548872 0.382411 -0.754529 1.017563 0.245741 -0.395122 -0.511334 0.039300 0.550930 0.579493 -0.075063 0.057939 -0.039781 0.387550 0.801351 0.129015 -0.940989 1.400843 -0.967708 0.878798 0.584230 -0.556546 -0.582218 -0.330448 -0.017836 1.288375 0.681333 1.188992 0.691538 -0.268734 -0.110129 1.284484 0.254300 0.560905 -0.194101 -0.135911 0.106394 -0.432993 -0.220637 -1.166311 0.726417 0.476486 -0.605645 -0.758513 0.542689 0.118479 2.142616 -0.552381 -0.517644 -0.007754 0.413554 0.292991 -0.888337 -0.389447 0.622969 0.141241 -0.486131 -0.518613 -0.361902 -0.974399 0.473555 -0.311182 -0.119772 0.389420 -0.563189 0.272738 -0.111716 0.067834 -0.357255 0.536006 -0.547735 0.390599 0.286925 0.446018 -1.660240 0.085564 0.620591 1.283292 -0.823122 
ɑ̃ -0.901019 -1.950335 1.239197 0.356383 -0.773282 0.618800 0.366306 -0.063686 -0.033322 0.673256 -0.382071 -0.553029 0.481332 -0.454049 0.363106 -0.088826 -1.052140 1.067989 -0.238233 -0.480102 -0.810008 0.110811 0.101702 -0.093004 -0.180596 -1.079866 0.729528 -0.804962 -0.038543 -0.148745 -0.928215 -0.172061 0.113716 0.565167 0.378127 -0.808092 -0.625670 0.635694 0.434106 -0.077423 -0.633148 0.522177 1.303186 0.084658 0.305617 -0.418082 -0.008779 0.259365 -0.804043 -0.391253 0.035620 0.555222 0.001205 0.047214 0.118020 -0.826404 0.320405 -0.548473 0.359531 0.589104 1.216958 0.556190 -0.028718 0.559443 -0.109082 0.743113 -0.819717 -1.312897 -0.009519 0.424971 -0.937830 0.091477 -0.264532 -0.242478 0.715036 0.083967 0.154665 0.405388 -0.310859 0.358374 -0.320024 0.147975 1.032303 0.715548 0.817576 1.486325 0.522946 0.049150 -0.158255 -0.342046 -0.591994 0.628714 -0.446825 0.815900 0.268068 -1.018752 -1.345775 0.175880 -0.580030 0.397274 
ɜː -0.643198 -0.319727 0.022750 -0.819381 0.429721 0.527932 -0.158240 0.017437 -0.527540 1.248563 0.601135 -0.570498 -1.390550 0.332707 -2.033004 0.792858 1.139724 -0.499857 -0.396040 -0.027959 0.157372 -0.981229 0.011416 0.109833 -0.134988 -0.302311 -1.026870 0.145857 0.195121 0.365985 -1.414345 0.652550 0.252420 -0.064783 0.579900 1.068118 0.615521 1.368545 0.575775 0.563686 0.149270 0.636782 1.505543 -0.018948 -0.146005 -0.336946 0.944365 -1.091033 -1.934933 0.152867 -0.257931 1.237270 0.570364 -0.086835 0.296283 2.476167 -0.770032 0.673775 -0.535462 -0.430061 -1.322407 -0.302217 -0.489617 -0.291755 0.103333 -0.114047 0.659590 -0.056185 -0.752430 0.149881 -0.074771 1.093136 0.422212 1.019927 -0.763559 1.556666 -1.225685 0.338680 -0.227312 0.235702 -0.171241 -0.322519 -0.539883 0.991149 0.629469 -0.307175 0.645961 1.102269 -0.785215 0.470577 -0.998443 0.485249 -0.173663 -1.085609 0.207099 1.297971 0.842555 -0.534990 -0.653739 0.626363 
ð 0.130563 0.632245 -0.931846 0.395018 0.317483 -0.081502 1.330478 0.650197 -0.277695 0.759101 -0.466238 0.749400 0.411803 -0.749359 -0.369560 -0.596843 1.424827 -0.296761 0.916541 0.597467 0.241816 -0.505741 -0.491031 0.035551 0.187745 -0.022201 -0.133426 0.229998 0.368976 -0.146331 0.695104 -0.448183 0.109581 -0.607896 0.230329 -0.111075 -0.372235 -0.250568 -0.658305 -0.062376 0.606006 0.314036 -0.153280 0.967691 0.607306 -0.812019 0.042630 -0.812115 -0.937227 -1.319357 -0.214587 0.144118 -0.703291 -0.999127 -0.890063 0.577025 0.093152 0.688434 0.248107 -0.226880 -0.591881 -0.442215 -0.322630 -0.417452 1.108553 -1.263638 0.248411 0.567714 -0.132568 -0.450092 0.946656 -0.179396 -0.102951 1.116954 -0.737572 -0.124172 0.776832 0.237676 0.313583 0.310693 0.042500 -0.133844 -0.750455 -0.243001 -0.696397 -0.124368 -0.539002 -0.240778 0.581365 0.233490 0.978946 0.334140 -0.227009 0.603660 0.258625 1.518308 0.027341 -0.139997 0.139999 -0.716758 
ɔː -0.314077 -0.241845 -0.214969 -0.812412 0.277931 0.504661 -0.657318 0.145513 -0.680809 1.352667 0.503919 -0.384707 -1.103254 0.256700 -2.210068 1.111136 1.159621 -0.323719 -0.421276 -0.096157 0.280286 -0.548703 0.481098 -0.058368 -0.224797 -0.552247 -1.025492 0.579991 0.208215 0.423583 -1.472874 0.616299 0.278938 -0.042089 0.970777 0.985202 0.394709 1.589406 1.079105 0.485077 0.116305 0.535369 1.458695 0.013998 0.193136 -0.198313 0.749066 -1.122618 -1.664691 0.084415 -0.369330 1.337062 0.332407 -0.288146 0.182831 1.839094 -0.392829 0.771715 0.060882 -0.261414 -0.799695 -0.469507 -0.182747 -0.052044 -0.203900 -0.065002 1.014171 -0.219385 -0.649866 -0.360803 0.115536 0.921546 0.166458 1.314750 -0.720271 1.486745 -1.333215 0.647642 -0.411852 0.241242 -0.379980 -0.371339 -1.086215 0.754765 0.176427 -0.502055 0.666733 0.940549 -0.631737 0.425242 -0.717213 0.376924 -0.570071 -0.592748 0.105020 1.478715 0.785301 -0.880938 -1.125363 0.360642 
uː -0.432600 -0.358857 0.111239 -0.591305 0.152900 0.642837 -0.006947 0.240045 -0.224079 1.829637 0.404357 -0.212380 -1.063583 0.648130 -1.645280 1.179986 0.966604 -0.778558 -0.494048 0.254988 0.204876 -0.871196 0.162693 0.518861 -0.578726 0.048391 -0.808674 0.272188 0.684389 0.346507 -1.640006 0.535597 0.369121 0.343176 0.779354 0.686835 0.155134 1.055099 1.658861 0.124653 -0.184098 0.459044 1.927866 -0.186252 0.746795 -0.769783 0.047026 -0.921613 -1.351698 0.200045 -0.222721 1.083420 0.625457 -0.328707 0.234881 1.445772 -0.479158 1.009740 -0.149957 -0.335283 -0.716469 -0.163168 -0.187979 0.114204 -0.153784 0.404855 0.805053 -0.099661 -0.757529 0.099144 -0.079798 0.410988 -0.208194 1.404908 0.034815 1.521886 -1.181347 0.561916 -0.005499 0.337106 -0.312614 0.143093 -0.181912 0.941206 0.175518 -1.027993 0.813968 0.633469 -1.047704 0.622021 -0.761717 0.081842 -0.084200 -0.307968 0.109433 0.883805 0.615527 -0.685235 -0.704554 0.020559 
ʌ -0.638339 -0.559503 -0.180899 -0.943111 0.066462 0.487283 -0.116410 0.524585 -0.762433 1.832416 0.744002 -0.576906 -1.008968 0.447738 -1.630549 0.838017 1.165891 -0.676523 -0.579201 0.282827 0.206979 -0.863831 0.318107 0.452402 -0.545864 -0.148934 -0.788572 0.380076 0.382947 0.577204 -1.441360 0.818466 0.092321 0.077571 0.977543 0.877284 0.106817 1.311467 1.431351 0.291774 -0.032884 0.859126 1.416868 -0.226596 0.375854 -0.438006 0.374864 -0.758577 -2.028469 -0.027624 -0.406411 1.314095 0.554683 -0.537204 0.053261 1.925761 -0.414558 0.583880 0.042106 -0.097753 -0.730395 -0.541556 -0.522622 0.380756 -0.442309 0.018288 1.223170 -0.118866 -0.659075 0.039866 -0.172476 0.771717 0.119812 1.177606 -0.624768 1.409947 -1.437335 0.560446 -0.217535 0.506108 -0.101901 -0.055749 -0.531665 0.883083 0.085777 -0.371894 0.591315 0.864090 -0.633572 0.468203 -0.389572 0.303300 -0.410077 -0.085773 0.121286 1.217540 0.936901 -0.715372 -0.749138 -0.058307 
θ 0.356468 -0.387262 -0.927468 -0.379661 0.754601 -0.292765 1.175573 0.192532 0.268837 1.094675 -0.540722 0.872778 -0.076690 0.234931 -0.302194 0.065346 1.458700 -0.388556 0.594347 0.354415 0.240593 -1.207549 -0.134020 -0.421318 -0.006705 -0.203156 -0.336508 0.240025 0.104215 -0.363428 0.047412 -0.564401 0.174708 -0.318707 0.488734 0.114462 -0.221282 0.342917 0.214703 0.405811 0.110991 1.041222 0.187942 0.470786 0.636690 -0.814571 0.155147 -0.957331 -1.377296 -0.667900 -0.460239 -0.019291 0.011632 -0.702925 0.120244 0.668588 0.007784 0.352746 0.126254 0.059028 -1.172265 -0.480631 -0.635198 -0.240663 1.121600 -0.565141 0.096733 0.091071 -0.451122 0.070975 0.458284 -0.284784 -0.077661 1.150872 -0.512630 0.085116 0.299379 0.253077 0.362954 0.419497 -0.098753 -0.283267 -0.529398 -0.560835 -0.741138 -0.705383 -0.345424 0.166027 -0.437418 1.123760 0.371221 0.982755 -0.504979 0.240206 0.300573 1.288087 0.371611 -0.147883 -0.056823 -0.546466 
ɔ̃ -0.463059 -1.177009 1.484067 0.517452 -1.313722 1.081260 0.020026 -0.197636 0.277373 0.505465 0.017987 0.495126 0.537161 -0.142274 0.016942 0.405539 -1.282834 0.792799 0.231743 -1.044268 -1.040034 0.524956 0.042305 -0.056929 -0.394764 -0.249600 0.045091 -0.762511 0.074255 -0.058430 -0.414439 0.126389 0.481168 0.211927 0.676234 -1.019437 -0.856202 0.448196 0.687832 -0.269040 -0.754662 0.280245 1.241296 -0.126095 0.109423 -0.636163 0.259799 -0.110752 -0.188616 -0.209545 0.932858 0.584516 -0.007760 0.317004 0.495826 -1.483149 0.097312 -0.375861 1.144132 0.207575 1.615212 0.636296 0.450364 0.059125 -0.460910 0.888774 -0.578065 -1.221353 -0.365274 0.064409 -0.556422 -0.167938 -0.644188 -0.314301 0.740290 0.224476 0.443098 0.223563 -0.430882 -0.428435 0.607885 0.162499 0.838179 0.327664 0.263672 0.343496 0.417309 -0.098505 -0.505231 -0.217199 -0.862317 0.527894 -0.982584 0.705230 -0.443505 -1.262549 -0.869703 -0.049636 0.289283 0.812942 
ɛ̃ -0.554873 -1.214726 1.219019 0.488986 -0.919323 0.945801 0.234198 0.392762 0.241607 -0.028570 0.032253 -0.598677 -0.155566 -0.402779 -0.150959 -0.311178 -1.419921 0.461911 -0.242963 -0.636213 -1.241211 0.442226 0.069604 -0.377961 -0.294538 -0.664358 0.145414 -0.756869 0.288548 -0.434422 -0.835729 -0.237890 0.462775 -0.090618 0.612211 -0.622099 -0.746141 0.061850 0.130554 -0.335271 -0.654542 0.397549 0.955697 -0.132521 -0.073443 0.003778 -0.086218 -0.080149 -0.749894 0.144830 -0.385673 0.242485 -0.211534 0.122275 0.512910 -1.346473 0.182120 -0.640605 0.630445 0.851925 1.093640 0.064289 0.155126 0.484552 -0.485402 1.106215 -0.421130 -0.745492 -0.216719 0.155375 -0.516086 0.158969 -0.426364 -0.294346 0.173079 -0.173483 0.633172 0.593082 0.184982 0.468594 0.244902 -0.345612 0.700071 0.398776 0.813253 1.103309 0.293122 0.033056 -0.433792 0.023401 -0.942997 0.694176 0.072516 1.108276 -0.209947 -0.839027 -1.115389 0.139851 -0.473555 0.563686 
œ -0.838680 -1.320853 1.767741 0.630011 -1.224201 0.302140 0.386819 0.026889 -0.267369 0.362516 0.041247 -0.463757 -0.096790 -0.551047 0.246277 -0.442275 -1.055962 0.918507 0.202290 -0.553710 -0.927064 -0.008419 0.341153 -0.529792 0.032397 -0.491119 0.224141 -0.416215 0.282506 -0.011548 -0.734481 -0.533329 0.458834 0.340493 0.163005 -0.822973 -0.630283 0.298946 0.111620 -0.204881 -0.827079 0.292965 1.474900 0.233344 -0.412893 0.032880 0.179394 0.301359 -0.408659 0.069958 0.105744 0.558293 -0.048760 0.351927 0.570106 -1.356765 0.514785 -0.806710 0.914034 0.875934 1.189318 0.349473 0.389702 0.463982 -0.134981 0.938974 -0.659832 -0.912930 -0.263525 -0.116670 -0.592994 0.030232 0.187906 -0.589055 0.416040 -0.135468 0.617022 0.518283 -0.293704 -0.072511 -0.121967 0.009294 0.706180 0.535267 0.283963 1.033915 0.490570 -0.139468 -0.728370 -0.496186 -0.637946 0.544169 0.211249 0.625075 -0.466725 -0.898279 -1.069253 -0.817400 -0.454229 0.568627 
ɥ -0.453594 -1.159708 1.658059 0.382018 -0.705325 0.660023 0.723720 0.429892 -0.473996 0.290132 -0.085920 -0.494635 0.401372 0.145818 0.156020 -0.472836 -0.981752 1.084041 0.079785 -1.265440 -0.573393 0.247508 -0.537147 -1.058946 -0.679751 -0.388727 -0.068759 -0.988213 0.281476 -0.547792 -0.153268 -0.219171 0.241440 0.518734 0.109466 -0.658703 -0.700686 0.218168 0.033050 -0.167606 -0.750976 0.301588 1.456477 -0.321710 0.039454 -0.027705 -0.065984 0.002322 -0.181110 -0.482110 0.272890 0.451706 -0.107158 0.603302 0.700471 -1.431895 0.633075 -0.410203 1.065828 1.436369 1.425834 0.077341 0.515902 0.439714 -0.032269 0.829627 -0.356692 -1.502235 -0.158095 -0.028909 -0.325791 0.527453 -0.239233 -0.560870 -0.277001 -0.395452 0.756481 0.326394 -0.026088 0.753216 -0.383990 -0.155404 0.948231 0.507156 0.480193 0.638327 1.079680 0.340059 -0.626618 -0.423411 -0.759230 1.024130 0.286650 1.082643 -0.254620 -0.387376 -0.810614 -0.864047 -0.376510 0.646102 
ħ 0.122770 1.393565 1.498791 -0.195740 0.016112 -0.356066 -0.526106 -0.096614 -0.715148 -0.730527 -0.344374 -1.790755 1.465062 0.228088 -0.197487 0.725548 1.470332 0.259819 -0.742776 -0.594224 -0.228900 0.074282 0.507996 0.227867 0.006746 1.092117 -0.468254 -1.109372 -0.175240 0.658042 0.466260 0.894919 0.567816 -0.287916 1.096393 -0.197698 0.398119 -0.479847 1.185353 0.437841 -0.729591 -1.201512 0.082494 0.683589 -0.127962 -0.959187 -0.020655 0.569064 -0.729351 -0.841507 -0.125940 -0.811290 0.250998 0.212057 1.740373 -0.768305 -1.050483 0.384653 0.078968 0.224988 -0.442948 -0.906388 1.008667 0.463804 0.373247 -1.054854 -0.028824 0.160416 -0.663560 -0.061809 1.005454 -0.251532 -0.080700 -0.169272 0.576958 -0.126169 0.133439 0.252638 0.179499 -1.140102 0.053598 -0.040585 0.936704 -1.200810 0.026800 1.395191 -0.659386 -0.036807 0.215492 1.526553 0.263517 -0.302823 -0.433673 0.012434 0.070344 -0.127393 0.715675 0.333400 0.245682 -1.919412 
ʔ 0.430379 1.640773 1.379239 -0.512815 -0.301191 -0.393617 -0.486863 -0.043234 -0.941646 -0.300078 -0.447583 -1.947933 1.137120 0.809790 -0.800566 0.104666 1.433642 0.815927 -1.261131 0.368096 -0.475916 0.783231 0.252330 0.859174 -0.072686 0.793812 -0.380608 -1.193158 -0.049310 0.502947 0.736503 0.832816 0.638310 -0.118712 1.081925 -0.368422 0.249498 0.046776 1.226248 -0.126060 -1.118228 -1.706583 -0.566971 1.075128 -0.466415 -0.786652 0.259875 0.166271 -0.185923 -1.144887 -0.196338 -0.711429 0.185490 0.474806 1.384982 -0.716882 -0.405981 0.542151 0.576011 0.086691 -0.849190 -0.506077 0.426280 0.355110 0.303701 -1.377419 -0.062608 -0.091288 -0.507490 -0.610722 1.478274 -0.671116 -0.356407 -0.023533 0.331785 0.130337 -0.022137 0.139412 0.046409 -1.199733 -0.001146 -0.104477 0.626110 -1.889607 0.011279 1.494925 -0.813948 -0.599929 0.323120 0.668866 0.077205 -0.035924 0.120848 -0.301439 0.127921 -0.407061 1.002158 0.411619 0.222391 -1.763977 
œ̃ -0.348344 -1.241767 0.947260 0.383027 -0.869483 1.266612 0.098370 0.251627 -0.049795 -0.102058 0.164443 -0.295831 -0.182821 -0.243941 0.077735 -0.231553 -1.293329 0.773317 -0.381478 -1.142671 -0.798954 0.397305 -0.067939 -0.709410 -0.320531 -0.495639 0.335363 -0.860488 0.069365 -0.282127 -0.234116 -0.167796 0.486125 -0.096167 0.783255 -0.711174 -0.921464 0.221393 0.399830 -0.282374 -0.876312 0.205596 1.587520 -0.167293 0.256464 -0.560633 -0.157391 0.106397 -0.798685 -0.646432 -0.119775 0.423241 -0.399043 0.156897 0.444966 -1.339114 0.240030 -0.669314 0.953415 0.991087 1.317977 0.059439 0.541835 0.358432 -0.547181 0.939079 -0.297407 -0.976692 -0.360784 -0.076094 -0.319692 0.013627 -0.436041 -0.277112 0.101077 -0.160499 0.451385 0.286266 -0.012144 0.193548 0.205834 -0.277045 0.906864 0.313177 0.528569 0.822742 0.632041 0.122825 -0.773618 -0.256488 -0.627741 0.736180 0.070105 1.200159 -0.327813 -0.546369 -1.135514 0.139567 -0.394284 0.145233 
ɣ -0.578159 0.758630 -0.751695 0.700383 -0.029316 -1.131625 0.514220 -0.691718 -0.154863 0.489524 -0.011717 1.223028 0.622357 -0.494233 0.871387 -1.026654 1.291253 -0.177470 0.977259 0.777063 0.185694 -0.236576 -0.355398 0.585636 0.338228 0.412058 0.288012 -0.120472 -0.339940 -0.329049 0.723963 -0.509480 0.091678 -0.854383 -0.003448 -0.090580 -0.086993 -0.649329 -0.234693 0.068062 0.705489 0.333794 -1.253237 0.570187 0.221043 -0.303788 -0.183521 -0.323009 -0.592581 -0.363026 0.117406 -0.311474 -0.997714 -0.658509 -0.729290 0.064442 -0.043806 -0.103478 0.648287 -1.131635 -0.189713 -0.370933 -0.146331 -0.414848 0.186565 -1.377242 -0.154286 0.616098 -0.266175 -0.142855 0.228843 0.171404 -0.424332 0.303282 -0.203020 -0.948734 1.762997 0.259604 0.403797 -0.700580 -0.291080 -0.582067 -0.483743 0.126775 -0.631834 -0.328550 -1.158440 0.246963 0.856874 -0.028654 0.543169 -0.207176 -0.308971 0.241629 0.286558 0.531292 0.047990 0.877815 0.307666 -0.682273 
ʎ 0.557943 -0.063302 -0.260654 0.808655 0.769677 -0.480228 -0.207796 -0.193266 -0.260402 -0.484220 -0.149792 -0.178228 0.811311 -0.174166 0.086825 -0.156642 -1.477094 -0.139625 -0.096881 -0.996439 -0.205881 0.369955 -0.408146 -0.219210 0.531236 -0.354678 0.286984 -0.219102 0.198815 -0.305241 0.640542 0.463214 0.239419 0.109678 -0.117313 -0.214416 0.261095 0.436150 0.346562 -0.349784 0.463408 -0.075239 -0.749260 0.159668 -0.376758 0.112805 0.811335 0.081062 0.307052 -0.242185 0.135408 0.232189 0.450650 0.417142 0.758093 0.565179 0.163796 0.184055 -0.633027 0.818848 -0.524241 -0.062028 0.097326 0.069017 0.566853 0.982883 0.106342 0.449422 -0.718423 -0.259106 0.286616 -0.134753 0.455098 -0.418099 -0.072579 -0.286177 0.328082 -0.509410 0.370940 0.771495 -0.498736 0.094634 -0.662399 -0.712390 0.233413 -1.428774 0.890870 0.534642 -0.165902 0.499630 -0.868385 0.288698 -0.090149 -0.225700 0.130220 -0.741435 0.905915 -0.003356 -0.109840 0.374571 
